<?xml version="1.0"?>
<opencv_storage>
<stage5>
  <maxWeakCount>69</maxWeakCount>
  <stageThreshold>-8.6470752954483032e-01</stageThreshold>
  <weakClassifiers>
    <_>
      <internalNodes>
        0 -1 16227 2.6106320321559906e-02</internalNodes>
      <leafValues>
        5.4065935313701630e-02 6.1887639760971069e-01</leafValues></_>
    <_>
      <internalNodes>
        0 -1 55639 -8.8421180844306946e-02</internalNodes>
      <leafValues>
        5.3705614805221558e-01 -1.2132671475410461e-01</leafValues></_>
    <_>
      <internalNodes>
        0 -1 5346 1.3994390144944191e-02</internalNodes>
      <leafValues>
        -1.3364546000957489e-01 3.2045376300811768e-01</leafValues></_>
    <_>
      <internalNodes>
        0 -1 29778 5.2663758397102356e-03</internalNodes>
      <leafValues>
        -1.4286555349826813e-01 2.5886616110801697e-01</leafValues></_>
    <_>
      <internalNodes>
        0 -1 73905 3.3585138618946075e-02</internalNodes>
      <leafValues>
        -8.2117021083831787e-02 4.4384172558784485e-01</leafValues></_>
    <_>
      <internalNodes>
        0 -1 70519 4.6605188399553299e-03</internalNodes>
      <leafValues>
        -1.8959392607212067e-01 1.7351002991199493e-01</leafValues></_>
    <_>
      <internalNodes>
        0 -1 25044 -2.5644572451710701e-03</internalNodes>
      <leafValues>
        1.7846637964248657e-01 -1.7003339529037476e-01</leafValues></_>
    <_>
      <internalNodes>
        0 -1 46238 -8.0938218161463737e-03</internalNodes>
      <leafValues>
        3.2301804423332214e-01 -1.0575360059738159e-01</leafValues></_>
    <_>
      <internalNodes>
        0 -1 5690 -3.8934155600145459e-04</internalNodes>
      <leafValues>
        1.8076476454734802e-01 -1.5460744500160217e-01</leafValues></_>
    <_>
      <internalNodes>
        0 -1 45864 1.0341178625822067e-02</internalNodes>
      <leafValues>
        -8.7199963629245758e-02 3.1474131345748901e-01</leafValues></_>
    <_>
      <internalNodes>
        0 -1 55373 -7.2505348362028599e-04</internalNodes>
      <leafValues>
        1.9882816076278687e-01 -1.3167054951190948e-01</leafValues></_>
    <_>
      <internalNodes>
        0 -1 71579 7.6872624456882477e-02</internalNodes>
      <leafValues>
        -5.9565462172031403e-02 3.8204377889633179e-01</leafValues></_>
    <_>
      <internalNodes>
        0 -1 62794 -1.3643640559166670e-03</internalNodes>
      <leafValues>
        2.0209074020385742e-01 -1.1411730200052261e-01</leafValues></_>
    <_>
      <internalNodes>
        0 -1 61918 -4.5796088874340057e-02</internalNodes>
      <leafValues>
        2.6746809482574463e-01 -8.7347060441970825e-02</leafValues></_>
    <_>
      <internalNodes>
        0 -1 64737 7.1007488295435905e-03</internalNodes>
      <leafValues>
        3.0460085719823837e-02 -6.8760347366333008e-01</leafValues></_>
    <_>
      <internalNodes>
        0 -1 6082 1.0833132080733776e-02</internalNodes>
      <leafValues>
        -7.6589122414588928e-02 3.1547516584396362e-01</leafValues></_>
    <_>
      <internalNodes>
        0 -1 42925 2.1626416593790054e-02</internalNodes>
      <leafValues>
        -6.5905332565307617e-02 3.5614508390426636e-01</leafValues></_>
    <_>
      <internalNodes>
        0 -1 65435 1.7813437152653933e-03</internalNodes>
      <leafValues>
        -8.5446506738662720e-02 2.4818164110183716e-01</leafValues></_>
    <_>
      <internalNodes>
        0 -1 65152 2.9895700514316559e-02</internalNodes>
      <leafValues>
        4.3042723089456558e-02 -5.6239235401153564e-01</leafValues></_>
    <_>
      <internalNodes>
        0 -1 61870 2.0337892696261406e-02</internalNodes>
      <leafValues>
        3.9279472082853317e-02 -5.3471148014068604e-01</leafValues></_>
    <_>
      <internalNodes>
        0 -1 12633 -4.3988712131977081e-03</internalNodes>
      <leafValues>
        -3.4624251723289490e-01 5.9510361403226852e-02</leafValues></_>
    <_>
      <internalNodes>
        0 -1 31171 -1.3635293580591679e-03</internalNodes>
      <leafValues>
        2.3084792494773865e-01 -9.9275514483451843e-02</leafValues></_>
    <_>
      <internalNodes>
        0 -1 61642 -1.4648851007223129e-02</internalNodes>
      <leafValues>
        -7.6101464033126831e-01 3.2202020287513733e-02</leafValues></_>
    <_>
      <internalNodes>
        0 -1 61789 -5.3633446805179119e-04</internalNodes>
      <leafValues>
        1.9019846618175507e-01 -1.2307538837194443e-01</leafValues></_>
    <_>
      <internalNodes>
        0 -1 77016 -8.4478722419589758e-04</internalNodes>
      <leafValues>
        2.0594178140163422e-01 -1.0752086341381073e-01</leafValues></_>
    <_>
      <internalNodes>
        0 -1 16155 3.7064244970679283e-03</internalNodes>
      <leafValues>
        -1.3300511240959167e-01 1.6857619583606720e-01</leafValues></_>
    <_>
      <internalNodes>
        0 -1 34197 -4.9518891610205173e-03</internalNodes>
      <leafValues>
        -3.4545952081680298e-01 6.3090980052947998e-02</leafValues></_>
    <_>
      <internalNodes>
        0 -1 35874 -9.3810446560382843e-03</internalNodes>
      <leafValues>
        2.7021601796150208e-01 -7.7729895710945129e-02</leafValues></_>
    <_>
      <internalNodes>
        0 -1 24959 -2.1568767260760069e-03</internalNodes>
      <leafValues>
        2.0133465528488159e-01 -9.9735870957374573e-02</leafValues></_>
    <_>
      <internalNodes>
        0 -1 49305 3.1294073909521103e-02</internalNodes>
      <leafValues>
        -8.6933977901935577e-02 2.3869523406028748e-01</leafValues></_>
    <_>
      <internalNodes>
        0 -1 57874 9.7485743463039398e-03</internalNodes>
      <leafValues>
        6.5651930868625641e-02 -3.4272384643554688e-01</leafValues></_>
    <_>
      <internalNodes>
        0 -1 64900 -8.6890690727159381e-04</internalNodes>
      <leafValues>
        1.8919679522514343e-01 -1.0284059494733810e-01</leafValues></_>
    <_>
      <internalNodes>
        0 -1 64931 7.3078786954283714e-04</internalNodes>
      <leafValues>
        -1.2231900542974472e-01 1.6700242459774017e-01</leafValues></_>
    <_>
      <internalNodes>
        0 -1 39857 -2.8856750577688217e-03</internalNodes>
      <leafValues>
        -3.7145203351974487e-01 5.4583758115768433e-02</leafValues></_>
    <_>
      <internalNodes>
        0 -1 28156 -4.8247635364532471e-02</internalNodes>
      <leafValues>
        4.9982395768165588e-01 -4.2357984930276871e-02</leafValues></_>
    <_>
      <internalNodes>
        0 -1 57966 1.1377004906535149e-02</internalNodes>
      <leafValues>
        2.9931884258985519e-02 -7.7698057889938354e-01</leafValues></_>
    <_>
      <internalNodes>
        0 -1 76689 -9.0050753206014633e-03</internalNodes>
      <leafValues>
        2.4814896285533905e-01 -8.5604593157768250e-02</leafValues></_>
    <_>
      <internalNodes>
        0 -1 77505 1.7295044381171465e-03</internalNodes>
      <leafValues>
        -1.2763956189155579e-01 1.5734194219112396e-01</leafValues></_>
    <_>
      <internalNodes>
        0 -1 25385 5.4979431442916393e-03</internalNodes>
      <leafValues>
        7.3917739093303680e-02 -2.6543149352073669e-01</leafValues></_>
    <_>
      <internalNodes>
        0 -1 18320 -1.2623611837625504e-03</internalNodes>
      <leafValues>
        1.6109329462051392e-01 -1.2800592184066772e-01</leafValues></_>
    <_>
      <internalNodes>
        0 -1 2664 -6.0253787785768509e-02</internalNodes>
      <leafValues>
        1.6443189978599548e-01 -1.2516145408153534e-01</leafValues></_>
    <_>
      <internalNodes>
        0 -1 55968 2.9524402692914009e-02</internalNodes>
      <leafValues>
        -7.2189189493656158e-02 3.1019935011863708e-01</leafValues></_>
    <_>
      <internalNodes>
        0 -1 61790 -9.6922263037413359e-04</internalNodes>
      <leafValues>
        1.8889339268207550e-01 -1.1083435267210007e-01</leafValues></_>
    <_>
      <internalNodes>
        0 -1 61657 -1.9059063633903861e-03</internalNodes>
      <leafValues>
        2.3554927110671997e-01 -1.1516788601875305e-01</leafValues></_>
    <_>
      <internalNodes>
        0 -1 17267 -4.1149063035845757e-03</internalNodes>
      <leafValues>
        -5.9772825241088867e-01 3.9629962295293808e-02</leafValues></_>
    <_>
      <internalNodes>
        0 -1 53282 1.7013881355524063e-02</internalNodes>
      <leafValues>
        2.8809688985347748e-02 -6.2105286121368408e-01</leafValues></_>
    <_>
      <internalNodes>
        0 -1 30760 -8.4268022328615189e-03</internalNodes>
      <leafValues>
        2.2883619368076324e-01 -8.4959603846073151e-02</leafValues></_>
    <_>
      <internalNodes>
        0 -1 67813 -1.1494701728224754e-02</internalNodes>
      <leafValues>
        -7.4597179889678955e-01 2.7161985635757446e-02</leafValues></_>
    <_>
      <internalNodes>
        0 -1 46238 -2.5876865256577730e-03</internalNodes>
      <leafValues>
        1.5429112315177917e-01 -1.1714282631874084e-01</leafValues></_>
    <_>
      <internalNodes>
        0 -1 51341 -2.8550483286380768e-02</internalNodes>
      <leafValues>
        -4.1555878520011902e-01 5.2156627178192139e-02</leafValues></_>
    <_>
      <internalNodes>
        0 -1 6828 3.2163895666599274e-02</internalNodes>
      <leafValues>
        -7.7916100621223450e-02 2.6251399517059326e-01</leafValues></_>
    <_>
      <internalNodes>
        0 -1 20100 -2.8772875666618347e-02</internalNodes>
      <leafValues>
        2.5896885991096497e-01 -9.4565860927104950e-02</leafValues></_>
    <_>
      <internalNodes>
        0 -1 68527 -6.4697733614593744e-04</internalNodes>
      <leafValues>
        1.6845077276229858e-01 -1.3277412950992584e-01</leafValues></_>
    <_>
      <internalNodes>
        0 -1 68678 -5.4867374710738659e-03</internalNodes>
      <leafValues>
        -5.4476714134216309e-01 3.7997659295797348e-02</leafValues></_>
    <_>
      <internalNodes>
        0 -1 31587 3.5281316377222538e-04</internalNodes>
      <leafValues>
        -1.2183408439159393e-01 1.5893268585205078e-01</leafValues></_>
    <_>
      <internalNodes>
        0 -1 37070 -6.5541025251150131e-03</internalNodes>
      <leafValues>
        -5.7523143291473389e-01 4.0526781231164932e-02</leafValues></_>
    <_>
      <internalNodes>
        0 -1 15397 9.1057494282722473e-03</internalNodes>
      <leafValues>
        -9.1317191720008850e-02 2.1608336269855499e-01</leafValues></_>
    <_>
      <internalNodes>
        0 -1 45458 -3.2820426858961582e-03</internalNodes>
      <leafValues>
        1.8281632661819458e-01 -1.1718965321779251e-01</leafValues></_>
    <_>
      <internalNodes>
        0 -1 72247 5.6370589882135391e-03</internalNodes>
      <leafValues>
        -8.3288326859474182e-02 2.2838281095027924e-01</leafValues></_>
    <_>
      <internalNodes>
        0 -1 70719 1.1675886344164610e-03</internalNodes>
      <leafValues>
        1.0989334434270859e-01 -1.9680126011371613e-01</leafValues></_>
    <_>
      <internalNodes>
        0 -1 77462 -2.6665497571229935e-03</internalNodes>
      <leafValues>
        2.4386015534400940e-01 -9.1520950198173523e-02</leafValues></_>
    <_>
      <internalNodes>
        0 -1 30467 2.7630563825368881e-02</internalNodes>
      <leafValues>
        -5.5593099445104599e-02 3.3520686626434326e-01</leafValues></_>
    <_>
      <internalNodes>
        0 -1 41325 -1.0408082744106650e-03</internalNodes>
      <leafValues>
        1.8596129119396210e-01 -1.0656256228685379e-01</leafValues></_>
    <_>
      <internalNodes>
        0 -1 7348 5.7323977351188660e-02</internalNodes>
      <leafValues>
        -2.4807032197713852e-02 7.2488999366760254e-01</leafValues></_>
    <_>
      <internalNodes>
        0 -1 76652 -8.1961031537503004e-04</internalNodes>
      <leafValues>
        -2.4747647345066071e-01 8.2705259323120117e-02</leafValues></_>
    <_>
      <internalNodes>
        0 -1 58519 -1.2245399411767721e-03</internalNodes>
      <leafValues>
        1.4093919098377228e-01 -1.3969886302947998e-01</leafValues></_>
    <_>
      <internalNodes>
        0 -1 78050 -1.5092404559254646e-02</internalNodes>
      <leafValues>
        3.3368939161300659e-01 -5.7140376418828964e-02</leafValues></_>
    <_>
      <internalNodes>
        0 -1 56950 -3.7703905254602432e-03</internalNodes>
      <leafValues>
        1.8061140179634094e-01 -1.0573416203260422e-01</leafValues></_>
    <_>
      <internalNodes>
        0 -1 49216 1.1858515208587050e-03</internalNodes>
      <leafValues>
        -1.2973360717296600e-01 1.6641147434711456e-01</leafValues></_></weakClassifiers></stage5>
</opencv_storage>
