<?xml version="1.0"?>
<opencv_storage>
<stage7>
  <maxWeakCount>74</maxWeakCount>
  <stageThreshold>-8.0649435520172119e-01</stageThreshold>
  <weakClassifiers>
    <_>
      <internalNodes>
        0 -1 15655 -2.0590363070368767e-02</internalNodes>
      <leafValues>
        5.6500208377838135e-01 6.3071735203266144e-02</leafValues></_>
    <_>
      <internalNodes>
        0 -1 25361 8.3869509398937225e-02</internalNodes>
      <leafValues>
        -1.4865057170391083e-01 4.0506339073181152e-01</leafValues></_>
    <_>
      <internalNodes>
        0 -1 58799 6.2196277081966400e-02</internalNodes>
      <leafValues>
        -8.1950858235359192e-02 5.4341477155685425e-01</leafValues></_>
    <_>
      <internalNodes>
        0 -1 57851 8.5951499640941620e-03</internalNodes>
      <leafValues>
        4.4148419052362442e-02 -4.4953584671020508e-01</leafValues></_>
    <_>
      <internalNodes>
        0 -1 73905 4.3372236192226410e-02</internalNodes>
      <leafValues>
        -7.4755236506462097e-02 5.0444442033767700e-01</leafValues></_>
    <_>
      <internalNodes>
        0 -1 3337 1.3411734253168106e-02</internalNodes>
      <leafValues>
        -4.1969008743762970e-02 4.7913277149200439e-01</leafValues></_>
    <_>
      <internalNodes>
        0 -1 35928 1.0554082691669464e-02</internalNodes>
      <leafValues>
        -1.0129870474338531e-01 2.6523840427398682e-01</leafValues></_>
    <_>
      <internalNodes>
        0 -1 36006 1.0682781785726547e-01</internalNodes>
      <leafValues>
        3.4944176673889160e-02 -6.8246090412139893e-01</leafValues></_>
    <_>
      <internalNodes>
        0 -1 39190 -2.3461364209651947e-02</internalNodes>
      <leafValues>
        2.9838284850120544e-01 -7.3882102966308594e-02</leafValues></_>
    <_>
      <internalNodes>
        0 -1 62247 -1.7728448146954179e-03</internalNodes>
      <leafValues>
        2.2905702888965607e-01 -9.6720568835735321e-02</leafValues></_>
    <_>
      <internalNodes>
        0 -1 46541 -3.4217042848467827e-03</internalNodes>
      <leafValues>
        2.4451968073844910e-01 -8.8452801108360291e-02</leafValues></_>
    <_>
      <internalNodes>
        0 -1 47739 1.1037172749638557e-02</internalNodes>
      <leafValues>
        -1.2134235352277756e-01 1.9502903521060944e-01</leafValues></_>
    <_>
      <internalNodes>
        0 -1 30300 2.7841171249747276e-03</internalNodes>
      <leafValues>
        -9.5644868910312653e-02 2.2481168806552887e-01</leafValues></_>
    <_>
      <internalNodes>
        0 -1 74008 8.6360443383455276e-03</internalNodes>
      <leafValues>
        7.8483901917934418e-02 -2.6379603147506714e-01</leafValues></_>
    <_>
      <internalNodes>
        0 -1 73215 -5.9760078787803650e-02</internalNodes>
      <leafValues>
        5.4163396358489990e-01 -4.2291294783353806e-02</leafValues></_>
    <_>
      <internalNodes>
        0 -1 16724 -3.6706794053316116e-03</internalNodes>
      <leafValues>
        1.7577831447124481e-01 -1.1536848545074463e-01</leafValues></_>
    <_>
      <internalNodes>
        0 -1 24954 -1.3027463573962450e-03</internalNodes>
      <leafValues>
        2.1076551079750061e-01 -9.9789492785930634e-02</leafValues></_>
    <_>
      <internalNodes>
        0 -1 67960 9.4686495140194893e-04</internalNodes>
      <leafValues>
        -8.6598277091979980e-02 2.3545917868614197e-01</leafValues></_>
    <_>
      <internalNodes>
        0 -1 48584 4.4700399041175842e-02</internalNodes>
      <leafValues>
        3.2808322459459305e-02 -6.5704524517059326e-01</leafValues></_>
    <_>
      <internalNodes>
        0 -1 34263 6.1452575027942657e-03</internalNodes>
      <leafValues>
        7.7726557850837708e-02 -2.4681116640567780e-01</leafValues></_>
    <_>
      <internalNodes>
        0 -1 20034 4.5942645519971848e-02</internalNodes>
      <leafValues>
        -3.2695353031158447e-02 5.7188063859939575e-01</leafValues></_>
    <_>
      <internalNodes>
        0 -1 48979 -9.1064609587192535e-02</internalNodes>
      <leafValues>
        2.6111343502998352e-01 -7.5876459479331970e-02</leafValues></_>
    <_>
      <internalNodes>
        0 -1 44027 4.7576449811458588e-02</internalNodes>
      <leafValues>
        4.6558987349271774e-02 -4.6592447161674500e-01</leafValues></_>
    <_>
      <internalNodes>
        0 -1 15472 -2.4042902514338493e-02</internalNodes>
      <leafValues>
        -6.1552917957305908e-01 2.5793788954615593e-02</leafValues></_>
    <_>
      <internalNodes>
        0 -1 16779 3.0388496816158295e-02</internalNodes>
      <leafValues>
        -6.9455273449420929e-02 2.8185290098190308e-01</leafValues></_>
    <_>
      <internalNodes>
        0 -1 77256 8.4586795419454575e-03</internalNodes>
      <leafValues>
        -7.4362099170684814e-02 2.3903003334999084e-01</leafValues></_>
    <_>
      <internalNodes>
        0 -1 65119 6.6961334086954594e-03</internalNodes>
      <leafValues>
        6.3384659588336945e-02 -3.0483677983283997e-01</leafValues></_>
    <_>
      <internalNodes>
        0 -1 53702 -1.1407210491597652e-02</internalNodes>
      <leafValues>
        -5.7837462425231934e-01 3.0680578202009201e-02</leafValues></_>
    <_>
      <internalNodes>
        0 -1 64157 -1.0963816195726395e-02</internalNodes>
      <leafValues>
        3.2947722077369690e-01 -5.9371702373027802e-02</leafValues></_>
    <_>
      <internalNodes>
        0 -1 19890 -2.9282465577125549e-02</internalNodes>
      <leafValues>
        -5.4547530412673950e-01 3.9884749799966812e-02</leafValues></_>
    <_>
      <internalNodes>
        0 -1 65120 -1.6941841691732407e-02</internalNodes>
      <leafValues>
        -8.1538921594619751e-01 1.7482729628682137e-02</leafValues></_>
    <_>
      <internalNodes>
        0 -1 58230 2.2515724413096905e-03</internalNodes>
      <leafValues>
        -7.4180543422698975e-02 2.4601607024669647e-01</leafValues></_>
    <_>
      <internalNodes>
        0 -1 58240 -2.7064967434853315e-03</internalNodes>
      <leafValues>
        1.9232749938964844e-01 -9.2508487403392792e-02</leafValues></_>
    <_>
      <internalNodes>
        0 -1 62408 -4.3651799205690622e-04</internalNodes>
      <leafValues>
        1.4718458056449890e-01 -1.2487527728080750e-01</leafValues></_>
    <_>
      <internalNodes>
        0 -1 67957 5.7509628823027015e-04</internalNodes>
      <leafValues>
        -1.0959530621767044e-01 1.6664779186248779e-01</leafValues></_>
    <_>
      <internalNodes>
        0 -1 78393 -5.6350021623075008e-03</internalNodes>
      <leafValues>
        -5.3722220659255981e-01 3.8105301558971405e-02</leafValues></_>
    <_>
      <internalNodes>
        0 -1 61217 4.3497802689671516e-03</internalNodes>
      <leafValues>
        -1.1162771284580231e-01 1.7647543549537659e-01</leafValues></_>
    <_>
      <internalNodes>
        0 -1 77642 2.6586276944726706e-03</internalNodes>
      <leafValues>
        4.3859370052814484e-02 -3.8733261823654175e-01</leafValues></_>
    <_>
      <internalNodes>
        0 -1 40496 -5.4079708643257618e-03</internalNodes>
      <leafValues>
        2.0160792768001556e-01 -9.2097744345664978e-02</leafValues></_>
    <_>
      <internalNodes>
        0 -1 64939 -1.1197473853826523e-02</internalNodes>
      <leafValues>
        -4.4900047779083252e-01 4.3682970106601715e-02</leafValues></_>
    <_>
      <internalNodes>
        0 -1 50905 -2.2851889953017235e-03</internalNodes>
      <leafValues>
        1.7464123666286469e-01 -1.0448949784040451e-01</leafValues></_>
    <_>
      <internalNodes>
        0 -1 10870 -2.3765075951814651e-02</internalNodes>
      <leafValues>
        1.6588620841503143e-01 -1.1293379217386246e-01</leafValues></_>
    <_>
      <internalNodes>
        0 -1 67463 -3.9224419742822647e-03</internalNodes>
      <leafValues>
        -2.7395150065422058e-01 6.6633537411689758e-02</leafValues></_>
    <_>
      <internalNodes>
        0 -1 27060 -7.6347282156348228e-03</internalNodes>
      <leafValues>
        -4.4018030166625977e-01 3.8449157029390335e-02</leafValues></_>
    <_>
      <internalNodes>
        0 -1 62372 3.6742031807079911e-04</internalNodes>
      <leafValues>
        -1.3530521094799042e-01 1.3786558806896210e-01</leafValues></_>
    <_>
      <internalNodes>
        0 -1 28433 3.1280536204576492e-02</internalNodes>
      <leafValues>
        -5.8025050908327103e-02 3.0443894863128662e-01</leafValues></_>
    <_>
      <internalNodes>
        0 -1 2118 3.9699664339423180e-03</internalNodes>
      <leafValues>
        6.3358142971992493e-02 -2.8078433871269226e-01</leafValues></_>
    <_>
      <internalNodes>
        0 -1 55998 3.3670619130134583e-02</internalNodes>
      <leafValues>
        -8.4970563650131226e-02 2.0860080420970917e-01</leafValues></_>
    <_>
      <internalNodes>
        0 -1 5697 -2.4812682531774044e-03</internalNodes>
      <leafValues>
        1.6926731169223785e-01 -1.1147741973400116e-01</leafValues></_>
    <_>
      <internalNodes>
        0 -1 26481 -2.0082583650946617e-02</internalNodes>
      <leafValues>
        -6.2164467573165894e-01 2.7832577005028725e-02</leafValues></_>
    <_>
      <internalNodes>
        0 -1 54428 -2.4818740785121918e-03</internalNodes>
      <leafValues>
        2.5193813443183899e-01 -7.6011016964912415e-02</leafValues></_>
    <_>
      <internalNodes>
        0 -1 49777 1.3600739184767008e-03</internalNodes>
      <leafValues>
        -9.9727392196655273e-02 1.9977258145809174e-01</leafValues></_>
    <_>
      <internalNodes>
        0 -1 20941 2.5788556784391403e-02</internalNodes>
      <leafValues>
        -6.6560216248035431e-02 2.7996546030044556e-01</leafValues></_>
    <_>
      <internalNodes>
        0 -1 14159 -2.3540088906884193e-02</internalNodes>
      <leafValues>
        2.4497359991073608e-01 -7.2604186832904816e-02</leafValues></_>
    <_>
      <internalNodes>
        0 -1 34976 1.3556051254272461e-01</internalNodes>
      <leafValues>
        2.5762824341654778e-02 -7.1020352840423584e-01</leafValues></_>
    <_>
      <internalNodes>
        0 -1 62169 4.3103704228997231e-04</internalNodes>
      <leafValues>
        -1.0993507504463196e-01 1.5461795032024384e-01</leafValues></_>
    <_>
      <internalNodes>
        0 -1 69301 5.0941489636898041e-02</internalNodes>
      <leafValues>
        -2.4604409933090210e-02 5.9372031688690186e-01</leafValues></_>
    <_>
      <internalNodes>
        0 -1 48763 2.8030630201101303e-03</internalNodes>
      <leafValues>
        -9.3191459774971008e-02 1.7372751235961914e-01</leafValues></_>
    <_>
      <internalNodes>
        0 -1 48796 -2.7371108531951904e-02</internalNodes>
      <leafValues>
        -6.2106752395629883e-01 3.0034016817808151e-02</leafValues></_>
    <_>
      <internalNodes>
        0 -1 14732 9.9586434662342072e-03</internalNodes>
      <leafValues>
        -8.3828449249267578e-02 2.3087775707244873e-01</leafValues></_>
    <_>
      <internalNodes>
        0 -1 78141 -7.3390118777751923e-03</internalNodes>
      <leafValues>
        3.7414231896400452e-01 -4.5714881271123886e-02</leafValues></_>
    <_>
      <internalNodes>
        0 -1 77462 -1.7285237554460764e-03</internalNodes>
      <leafValues>
        1.9858834147453308e-01 -1.0211969166994095e-01</leafValues></_>
    <_>
      <internalNodes>
        0 -1 78198 -3.4409575164318085e-03</internalNodes>
      <leafValues>
        -5.1806730031967163e-01 4.1524685919284821e-02</leafValues></_>
    <_>
      <internalNodes>
        0 -1 57843 -1.9771818071603775e-02</internalNodes>
      <leafValues>
        -6.3012760877609253e-01 2.5261690840125084e-02</leafValues></_>
    <_>
      <internalNodes>
        0 -1 7619 -4.8577249050140381e-02</internalNodes>
      <leafValues>
        5.6680011749267578e-01 -3.4249823540449142e-02</leafValues></_>
    <_>
      <internalNodes>
        0 -1 78413 -2.1004278678447008e-03</internalNodes>
      <leafValues>
        -2.7796861529350281e-01 6.4902089536190033e-02</leafValues></_>
    <_>
      <internalNodes>
        0 -1 77505 2.7198013849556446e-03</internalNodes>
      <leafValues>
        -1.1009185016155243e-01 1.6586479544639587e-01</leafValues></_>
    <_>
      <internalNodes>
        0 -1 12508 -6.6694051027297974e-02</internalNodes>
      <leafValues>
        -6.9332665205001831e-01 2.3724123835563660e-02</leafValues></_>
    <_>
      <internalNodes>
        0 -1 75975 3.1149923801422119e-02</internalNodes>
      <leafValues>
        -2.9063457623124123e-02 6.8681007623672485e-01</leafValues></_>
    <_>
      <internalNodes>
        0 -1 68240 1.0048959404230118e-02</internalNodes>
      <leafValues>
        3.2874286174774170e-02 -6.7406177520751953e-01</leafValues></_>
    <_>
      <internalNodes>
        0 -1 65437 6.8062887294217944e-04</internalNodes>
      <leafValues>
        -1.1192798614501953e-01 1.8164123594760895e-01</leafValues></_>
    <_>
      <internalNodes>
        0 -1 68342 -1.3617181684821844e-03</internalNodes>
      <leafValues>
        2.3248299956321716e-01 -8.6433507502079010e-02</leafValues></_>
    <_>
      <internalNodes>
        0 -1 78260 -6.4926864579319954e-03</internalNodes>
      <leafValues>
        -5.8173394203186035e-01 3.3958308398723602e-02</leafValues></_>
    <_>
      <internalNodes>
        0 -1 65330 -1.6437330050393939e-03</internalNodes>
      <leafValues>
        2.1197703480720520e-01 -8.8541306555271149e-02</leafValues></_></weakClassifiers></stage7>
</opencv_storage>
