<?xml version="1.0"?>
<opencv_storage>
<stage6>
  <maxWeakCount>73</maxWeakCount>
  <stageThreshold>-8.4281063079833984e-01</stageThreshold>
  <weakClassifiers>
    <_>
      <internalNodes>
        0 -1 2449 -3.1369253993034363e-02</internalNodes>
      <leafValues>
        6.3454818725585938e-01 9.1710053384304047e-02</leafValues></_>
    <_>
      <internalNodes>
        0 -1 16831 -3.9528481662273407e-02</internalNodes>
      <leafValues>
        5.1374447345733643e-01 -1.0607644915580750e-01</leafValues></_>
    <_>
      <internalNodes>
        0 -1 25761 1.1310207843780518e-01</internalNodes>
      <leafValues>
        -1.4678880572319031e-01 2.9448851943016052e-01</leafValues></_>
    <_>
      <internalNodes>
        0 -1 72607 3.8378581404685974e-02</internalNodes>
      <leafValues>
        -1.3370423018932343e-01 2.6075187325477600e-01</leafValues></_>
    <_>
      <internalNodes>
        0 -1 4461 8.7622426450252533e-02</internalNodes>
      <leafValues>
        -5.4745186120271683e-02 4.7470676898956299e-01</leafValues></_>
    <_>
      <internalNodes>
        0 -1 47250 -2.7258606860414147e-04</internalNodes>
      <leafValues>
        1.2724778056144714e-01 -1.7434269189834595e-01</leafValues></_>
    <_>
      <internalNodes>
        0 -1 13217 7.6239064335823059e-02</internalNodes>
      <leafValues>
        -6.8308897316455841e-02 3.1814467906951904e-01</leafValues></_>
    <_>
      <internalNodes>
        0 -1 53287 2.3231063038110733e-02</internalNodes>
      <leafValues>
        4.0580358356237411e-02 -5.6673967838287354e-01</leafValues></_>
    <_>
      <internalNodes>
        0 -1 64632 4.6098485589027405e-02</internalNodes>
      <leafValues>
        4.3208923190832138e-02 -4.5242574810981750e-01</leafValues></_>
    <_>
      <internalNodes>
        0 -1 57474 -2.5644071400165558e-02</internalNodes>
      <leafValues>
        -4.1701197624206543e-01 5.2632730454206467e-02</leafValues></_>
    <_>
      <internalNodes>
        0 -1 69521 -8.8411957025527954e-02</internalNodes>
      <leafValues>
        7.7628839015960693e-01 -3.0371537432074547e-02</leafValues></_>
    <_>
      <internalNodes>
        0 -1 27271 1.6453634016215801e-03</internalNodes>
      <leafValues>
        -9.4997011125087738e-02 2.2348444163799286e-01</leafValues></_>
    <_>
      <internalNodes>
        0 -1 58598 -4.4778519077226520e-04</internalNodes>
      <leafValues>
        1.5277466177940369e-01 -1.4198069274425507e-01</leafValues></_>
    <_>
      <internalNodes>
        0 -1 57827 1.3476209715008736e-02</internalNodes>
      <leafValues>
        3.8933169096708298e-02 -5.4367572069168091e-01</leafValues></_>
    <_>
      <internalNodes>
        0 -1 53445 -5.5499206064268947e-04</internalNodes>
      <leafValues>
        1.7530378699302673e-01 -1.2504938244819641e-01</leafValues></_>
    <_>
      <internalNodes>
        0 -1 70798 -8.5679523181170225e-04</internalNodes>
      <leafValues>
        2.1668191254138947e-01 -8.9197888970375061e-02</leafValues></_>
    <_>
      <internalNodes>
        0 -1 73080 -1.8153067212551832e-03</internalNodes>
      <leafValues>
        2.1602554619312286e-01 -1.1461505293846130e-01</leafValues></_>
    <_>
      <internalNodes>
        0 -1 24959 6.2515693716704845e-03</internalNodes>
      <leafValues>
        -6.5403752028942108e-02 3.0598410964012146e-01</leafValues></_>
    <_>
      <internalNodes>
        0 -1 50671 -2.0313007757067680e-02</internalNodes>
      <leafValues>
        2.9405221343040466e-01 -6.9963015615940094e-02</leafValues></_>
    <_>
      <internalNodes>
        0 -1 72971 -5.1229877863079309e-04</internalNodes>
      <leafValues>
        1.4578381180763245e-01 -1.3522852957248688e-01</leafValues></_>
    <_>
      <internalNodes>
        0 -1 40878 1.7921566963195801e-02</internalNodes>
      <leafValues>
        2.9911490157246590e-02 -7.5656604766845703e-01</leafValues></_>
    <_>
      <internalNodes>
        0 -1 70568 4.4836121378466487e-04</internalNodes>
      <leafValues>
        -1.1496382951736450e-01 1.7342410981655121e-01</leafValues></_>
    <_>
      <internalNodes>
        0 -1 68110 5.2324486896395683e-03</internalNodes>
      <leafValues>
        3.8249481469392776e-02 -4.8067718744277954e-01</leafValues></_>
    <_>
      <internalNodes>
        0 -1 75258 3.5813797265291214e-02</internalNodes>
      <leafValues>
        -8.6749367415904999e-02 2.3805323243141174e-01</leafValues></_>
    <_>
      <internalNodes>
        0 -1 41856 -4.0535763837397099e-03</internalNodes>
      <leafValues>
        1.9272089004516602e-01 -1.0229980200529099e-01</leafValues></_>
    <_>
      <internalNodes>
        0 -1 1437 -1.4721080660820007e-03</internalNodes>
      <leafValues>
        -2.2802746295928955e-01 8.0723382532596588e-02</leafValues></_>
    <_>
      <internalNodes>
        0 -1 54335 -2.3815631866455078e-03</internalNodes>
      <leafValues>
        2.0917592942714691e-01 -8.4970191121101379e-02</leafValues></_>
    <_>
      <internalNodes>
        0 -1 69658 -4.0563796646893024e-03</internalNodes>
      <leafValues>
        1.4311920106410980e-01 -1.2635059654712677e-01</leafValues></_>
    <_>
      <internalNodes>
        0 -1 2 -1.0918141342699528e-03</internalNodes>
      <leafValues>
        -2.3447790741920471e-01 7.1950435638427734e-02</leafValues></_>
    <_>
      <internalNodes>
        0 -1 53672 1.2425074819475412e-03</internalNodes>
      <leafValues>
        -8.2820966839790344e-02 2.1791692078113556e-01</leafValues></_>
    <_>
      <internalNodes>
        0 -1 57786 -5.9276563115417957e-04</internalNodes>
      <leafValues>
        1.9665369391441345e-01 -1.0253138095140457e-01</leafValues></_>
    <_>
      <internalNodes>
        0 -1 57397 -1.0671678930521011e-02</internalNodes>
      <leafValues>
        -5.5911964178085327e-01 3.7537958472967148e-02</leafValues></_>
    <_>
      <internalNodes>
        0 -1 26910 -1.8231134861707687e-02</internalNodes>
      <leafValues>
        -5.7011109590530396e-01 2.8515106067061424e-02</leafValues></_>
    <_>
      <internalNodes>
        0 -1 65089 6.5298657864332199e-03</internalNodes>
      <leafValues>
        2.4209609255194664e-02 -6.4254397153854370e-01</leafValues></_>
    <_>
      <internalNodes>
        0 -1 61713 1.7500328831374645e-03</internalNodes>
      <leafValues>
        -1.0418249666690826e-01 2.0475323498249054e-01</leafValues></_>
    <_>
      <internalNodes>
        0 -1 11782 -1.4403846114873886e-02</internalNodes>
      <leafValues>
        -3.7577012181282043e-01 5.0184506922960281e-02</leafValues></_>
    <_>
      <internalNodes>
        0 -1 46066 1.5045562759041786e-02</internalNodes>
      <leafValues>
        1.9526511430740356e-02 -8.1078016757965088e-01</leafValues></_>
    <_>
      <internalNodes>
        0 -1 77860 -2.0621053874492645e-02</internalNodes>
      <leafValues>
        4.1434687376022339e-01 -4.9087692052125931e-02</leafValues></_>
    <_>
      <internalNodes>
        0 -1 70654 -5.0358612090349197e-02</internalNodes>
      <leafValues>
        4.5097783207893372e-01 -3.9122264832258224e-02</leafValues></_>
    <_>
      <internalNodes>
        0 -1 59540 -3.6030206829309464e-02</internalNodes>
      <leafValues>
        3.0121469497680664e-01 -6.2083933502435684e-02</leafValues></_>
    <_>
      <internalNodes>
        0 -1 36192 3.9574339985847473e-02</internalNodes>
      <leafValues>
        -7.3493078351020813e-02 2.5761762261390686e-01</leafValues></_>
    <_>
      <internalNodes>
        0 -1 67852 1.7118735238909721e-02</internalNodes>
      <leafValues>
        3.9037268608808517e-02 -5.4662311077117920e-01</leafValues></_>
    <_>
      <internalNodes>
        0 -1 19299 -1.4940949156880379e-02</internalNodes>
      <leafValues>
        -5.1310431957244873e-01 3.5405397415161133e-02</leafValues></_>
    <_>
      <internalNodes>
        0 -1 26835 -2.8518222272396088e-02</internalNodes>
      <leafValues>
        3.6679029464721680e-01 -5.2854139357805252e-02</leafValues></_>
    <_>
      <internalNodes>
        0 -1 67198 8.1666134297847748e-02</internalNodes>
      <leafValues>
        -8.4319159388542175e-02 2.1660761535167694e-01</leafValues></_>
    <_>
      <internalNodes>
        0 -1 70091 1.1554323136806488e-01</internalNodes>
      <leafValues>
        2.5700930505990982e-02 -7.5602072477340698e-01</leafValues></_>
    <_>
      <internalNodes>
        0 -1 28261 1.1251807212829590e-02</internalNodes>
      <leafValues>
        -1.0135130584239960e-01 1.9183149933815002e-01</leafValues></_>
    <_>
      <internalNodes>
        0 -1 58968 -1.1912500485777855e-03</internalNodes>
      <leafValues>
        1.8891087174415588e-01 -1.0530158877372742e-01</leafValues></_>
    <_>
      <internalNodes>
        0 -1 74252 6.3597816042602062e-03</internalNodes>
      <leafValues>
        -4.7896794974803925e-02 3.7716910243034363e-01</leafValues></_>
    <_>
      <internalNodes>
        0 -1 72015 -1.5469071269035339e-01</internalNodes>
      <leafValues>
        -8.0212676525115967e-01 2.4643512442708015e-02</leafValues></_>
    <_>
      <internalNodes>
        0 -1 41634 3.3857680857181549e-02</internalNodes>
      <leafValues>
        -1.3764677941799164e-01 1.7422322928905487e-01</leafValues></_>
    <_>
      <internalNodes>
        0 -1 11938 1.0911838710308075e-01</internalNodes>
      <leafValues>
        -4.8523284494876862e-02 3.8673752546310425e-01</leafValues></_>
    <_>
      <internalNodes>
        0 -1 64902 -6.1407480388879776e-03</internalNodes>
      <leafValues>
        -6.4816474914550781e-01 3.6316957324743271e-02</leafValues></_>
    <_>
      <internalNodes>
        0 -1 64771 2.0432554185390472e-02</internalNodes>
      <leafValues>
        3.0696541070938110e-02 -4.8201864957809448e-01</leafValues></_>
    <_>
      <internalNodes>
        0 -1 16705 -8.5851121693849564e-03</internalNodes>
      <leafValues>
        -8.0909377336502075e-01 1.9406592473387718e-02</leafValues></_>
    <_>
      <internalNodes>
        0 -1 68435 -3.9971200749278069e-03</internalNodes>
      <leafValues>
        3.3794799447059631e-01 -5.7519186288118362e-02</leafValues></_>
    <_>
      <internalNodes>
        0 -1 53904 2.9788617044687271e-02</internalNodes>
      <leafValues>
        3.1468611210584641e-02 -6.4858019351959229e-01</leafValues></_>
    <_>
      <internalNodes>
        0 -1 61025 1.0682318825274706e-03</internalNodes>
      <leafValues>
        -8.9103505015373230e-02 2.0920175313949585e-01</leafValues></_>
    <_>
      <internalNodes>
        0 -1 6490 1.8404858186841011e-02</internalNodes>
      <leafValues>
        6.1102043837308884e-02 -3.3270394802093506e-01</leafValues></_>
    <_>
      <internalNodes>
        0 -1 61935 1.1407623533159494e-03</internalNodes>
      <leafValues>
        -8.9564763009548187e-02 2.0088642835617065e-01</leafValues></_>
    <_>
      <internalNodes>
        0 -1 61935 -6.8828975781798363e-04</internalNodes>
      <leafValues>
        1.9302324950695038e-01 -1.0606781393289566e-01</leafValues></_>
    <_>
      <internalNodes>
        0 -1 78171 -3.4196292981505394e-03</internalNodes>
      <leafValues>
        -4.5705050230026245e-01 4.2780004441738129e-02</leafValues></_>
    <_>
      <internalNodes>
        0 -1 60259 4.2010201141238213e-03</internalNodes>
      <leafValues>
        2.9662651941180229e-02 -6.0195749998092651e-01</leafValues></_>
    <_>
      <internalNodes>
        0 -1 40854 -1.0264035081490874e-03</internalNodes>
      <leafValues>
        1.4975774288177490e-01 -1.2218347936868668e-01</leafValues></_>
    <_>
      <internalNodes>
        0 -1 65066 -6.2029232503846288e-04</internalNodes>
      <leafValues>
        1.6506457328796387e-01 -1.0747186839580536e-01</leafValues></_>
    <_>
      <internalNodes>
        0 -1 18787 -6.7727528512477875e-03</internalNodes>
      <leafValues>
        -5.7312595844268799e-01 3.0628100037574768e-02</leafValues></_>
    <_>
      <internalNodes>
        0 -1 71758 1.3233068399131298e-02</internalNodes>
      <leafValues>
        2.5250313803553581e-02 -5.8081644773483276e-01</leafValues></_>
    <_>
      <internalNodes>
        0 -1 65205 -4.0857621934264898e-04</internalNodes>
      <leafValues>
        1.5386310219764709e-01 -1.1148100346326828e-01</leafValues></_>
    <_>
      <internalNodes>
        0 -1 65204 -1.1034319177269936e-03</internalNodes>
      <leafValues>
        2.0474871993064880e-01 -1.1450521647930145e-01</leafValues></_>
    <_>
      <internalNodes>
        0 -1 19272 4.4499516487121582e-02</internalNodes>
      <leafValues>
        -2.9501210898160934e-02 5.7135808467864990e-01</leafValues></_>
    <_>
      <internalNodes>
        0 -1 5733 -2.1379169076681137e-02</internalNodes>
      <leafValues>
        3.9289572834968567e-01 -4.3858733028173447e-02</leafValues></_>
    <_>
      <internalNodes>
        0 -1 5692 -5.6438957108184695e-04</internalNodes>
      <leafValues>
        1.4986699819564819e-01 -1.4064055681228638e-01</leafValues></_>
    <_>
      <internalNodes>
        0 -1 2153 1.2252190150320530e-02</internalNodes>
      <leafValues>
        -6.5071240067481995e-02 2.9530432820320129e-01</leafValues></_></weakClassifiers></stage6>
</opencv_storage>
